<?xml version="1.0"?>
<opencv_storage>
<cascade>
  <stageType>BOOST</stageType>
  <featureType>HAAR</featureType>
  <height>40</height>
  <width>40</width>
  <stageParams>
    <boostType>GAB</boostType>
    <minHitRate>9.9500000476837158e-01</minHitRate>
    <maxFalseAlarm>5.0000000000000000e-01</maxFalseAlarm>
    <weightTrimRate>9.4999999999999996e-01</weightTrimRate>
    <maxDepth>1</maxDepth>
    <maxWeakCount>100</maxWeakCount></stageParams>
  <featureParams>
    <maxCatCount>0</maxCatCount>
    <featSize>1</featSize>
    <mode>BASIC</mode></featureParams>
  <stageNum>10</stageNum>
  <stages>
    <!-- stage 0 -->
    <_>
      <maxWeakCount>7</maxWeakCount>
      <stageThreshold>-8.9342868328094482e-01</stageThreshold>
      <weakClassifiers>
        <_>
          <internalNodes>
            0 -1 49 -3.4991349093616009e-04</internalNodes>
          <leafValues>
            -7.5000000000000000e-01 6.0613209009170532e-01</leafValues></_>
        <_>
          <internalNodes>
            0 -1 56 1.1577379154914524e-05</internalNodes>
          <leafValues>
            -5.0734943151473999e-01 4.0515738725662231e-01</leafValues></_>
        <_>
          <internalNodes>
            0 -1 4 -3.3057676628232002e-03</internalNodes>
          <leafValues>
            6.1022406816482544e-01 -2.8493902087211609e-01</leafValues></_>
        <_>
          <internalNodes>
            0 -1 64 9.0532808098942041e-04</internalNodes>
          <leafValues>
            2.0841893553733826e-01 -7.9996526241302490e-01</leafValues></_>
        <_>
          <internalNodes>
            0 -1 54 -7.4445479549467564e-04</internalNodes>
          <leafValues>
            5.6197106838226318e-01 -3.3799621462821960e-01</leafValues></_>
        <_>
          <internalNodes>
            0 -1 65 -7.7644566772505641e-05</internalNodes>
          <leafValues>
            -7.1753102540969849e-01 2.5618350505828857e-01</leafValues></_>
        <_>
          <internalNodes>
            0 -1 70 3.3212883863598108e-04</internalNodes>
          <leafValues>
            1.3983598351478577e-01 -9.3184697628021240e-01</leafValues></_></weakClassifiers></_>
    <!-- stage 1 -->
    <_>
      <maxWeakCount>10</maxWeakCount>
      <stageThreshold>-8.0457687377929688e-01</stageThreshold>
      <weakClassifiers>
        <_>
          <internalNodes>
            0 -1 71 -3.9495807141065598e-04</internalNodes>
          <leafValues>
            -8.6407768726348877e-01 5.4515051841735840e-01</leafValues></_>
        <_>
          <internalNodes>
            0 -1 57 -1.2913169484818354e-05</internalNodes>
          <leafValues>
            -5.5951517820358276e-01 4.2166236042976379e-01</leafValues></_>
        <_>
          <internalNodes>
            0 -1 14 -2.4535862728953362e-02</internalNodes>
          <leafValues>
            6.5114170312881470e-01 -2.5740930438041687e-01</leafValues></_>
        <_>
          <internalNodes>
            0 -1 61 2.9588706092908978e-04</internalNodes>
          <leafValues>
            1.9067113101482391e-01 -8.0645912885665894e-01</leafValues></_>
        <_>
          <internalNodes>
            0 -1 41 7.8171447967179120e-05</internalNodes>
          <leafValues>
            -4.9181678891181946e-01 2.8116825222969055e-01</leafValues></_>
        <_>
          <internalNodes>
            0 -1 29 -4.9246270209550858e-02</internalNodes>
          <leafValues>
            -8.2734119892120361e-01 1.2937095761299133e-01</leafValues></_>
        <_>
          <internalNodes>
            0 -1 39 4.0026687202043831e-05</internalNodes>
          <leafValues>
            -3.8294717669487000e-01 3.8160985708236694e-01</leafValues></_>
        <_>
          <internalNodes>
            0 -1 48 8.3022040780633688e-04</internalNodes>
          <leafValues>
            1.8475386500358582e-01 -7.1116614341735840e-01</leafValues></_>
        <_>
          <internalNodes>
            0 -1 13 2.5228604208678007e-03</internalNodes>
          <leafValues>
            -2.2142489254474640e-01 6.5712726116180420e-01</leafValues></_>
        <_>
          <internalNodes>
            0 -1 60 -3.9398728404194117e-04</internalNodes>
          <leafValues>
            -8.5127103328704834e-01 1.8152502179145813e-01</leafValues></_></weakClassifiers></_>
    <!-- stage 2 -->
    <_>
      <maxWeakCount>8</maxWeakCount>
      <stageThreshold>-9.5882344245910645e-01</stageThreshold>
      <weakClassifiers>
        <_>
          <internalNodes>
            0 -1 55 1.9851764955092221e-04</internalNodes>
          <leafValues>
            -9.7625330090522766e-02 7.0370370149612427e-01</leafValues></_>
        <_>
          <internalNodes>
            0 -1 1 -5.8160685002803802e-03</internalNodes>
          <leafValues>
            7.1449571847915649e-01 -1.7625546455383301e-01</leafValues></_>
        <_>
          <internalNodes>
            0 -1 80 2.8963559307157993e-03</internalNodes>
          <leafValues>
            -2.1891550719738007e-01 7.6729470491409302e-01</leafValues></_>
        <_>
          <internalNodes>
            0 -1 28 -8.3261001855134964e-03</internalNodes>
          <leafValues>
            5.8356666564941406e-01 -2.7667394280433655e-01</leafValues></_>
        <_>
          <internalNodes>
            0 -1 88 -6.9378234911710024e-04</internalNodes>
          <leafValues>
            6.2955087423324585e-01 -2.5245124101638794e-01</leafValues></_>
        <_>
          <internalNodes>
            0 -1 86 -3.8834096631035209e-04</internalNodes>
          <leafValues>
            6.1452358961105347e-01 -2.3713964223861694e-01</leafValues></_>
        <_>
          <internalNodes>
            0 -1 5 8.4012991283088923e-04</internalNodes>
          <leafValues>
            -3.0144172906875610e-01 5.1674795150756836e-01</leafValues></_>
        <_>
          <internalNodes>
            0 -1 91 -3.5292209940962493e-04</internalNodes>
          <leafValues>
            5.9926760196685791e-01 -2.8032267093658447e-01</leafValues></_></weakClassifiers></_>
    <!-- stage 3 -->
    <_>
      <maxWeakCount>10</maxWeakCount>
      <stageThreshold>-5.9334379434585571e-01</stageThreshold>
      <weakClassifiers>
        <_>
          <internalNodes>
            0 -1 33 4.1426926851272583e-02</internalNodes>
          <leafValues>
            5.1929438114166260e-01 -7.6344084739685059e-01</leafValues></_>
        <_>
          <internalNodes>
            0 -1 30 -3.4295514225959778e-02</internalNodes>
          <leafValues>
            -8.0232816934585571e-01 2.5968649983406067e-01</leafValues></_>
        <_>
          <internalNodes>
            0 -1 0 -1.2099618325009942e-03</internalNodes>
          <leafValues>
            4.8926657438278198e-01 -3.6368343234062195e-01</leafValues></_>
        <_>
          <internalNodes>
            0 -1 50 -1.6561194206587970e-04</internalNodes>
          <leafValues>
            -6.8740546703338623e-01 1.9879607856273651e-01</leafValues></_>
        <_>
          <internalNodes>
            0 -1 25 3.2520852982997894e-04</internalNodes>
          <leafValues>
            -2.3192380368709564e-01 6.7416495084762573e-01</leafValues></_>
        <_>
          <internalNodes>
            0 -1 21 -5.9929618146270514e-04</internalNodes>
          <leafValues>
            5.5778795480728149e-01 -2.4839723110198975e-01</leafValues></_>
        <_>
          <internalNodes>
            0 -1 104 5.5188871920108795e-04</internalNodes>
          <leafValues>
            -2.8747895359992981e-01 4.9346032738685608e-01</leafValues></_>
        <_>
          <internalNodes>
            0 -1 97 -7.0825270377099514e-03</internalNodes>
          <leafValues>
            -9.5155507326126099e-01 1.2898650765419006e-01</leafValues></_>
        <_>
          <internalNodes>
            0 -1 98 2.4478523992002010e-03</internalNodes>
          <leafValues>
            -2.6618957519531250e-01 5.0372171401977539e-01</leafValues></_>
        <_>
          <internalNodes>
            0 -1 75 -8.2736549666151404e-04</internalNodes>
          <leafValues>
            7.1789580583572388e-01 -1.8614406883716583e-01</leafValues></_></weakClassifiers></_>
    <!-- stage 4 -->
    <_>
      <maxWeakCount>10</maxWeakCount>
      <stageThreshold>-4.3058419227600098e-01</stageThreshold>
      <weakClassifiers>
        <_>
          <internalNodes>
            0 -1 58 3.8637488614767790e-04</internalNodes>
          <leafValues>
            5.4138702154159546e-01 -7.9245281219482422e-01</leafValues></_>
        <_>
          <internalNodes>
            0 -1 45 3.9453367207897827e-05</internalNodes>
          <leafValues>
            -4.9756628274917603e-01 2.8218099474906921e-01</leafValues></_>
        <_>
          <internalNodes>
            0 -1 95 3.0157854780554771e-04</internalNodes>
          <leafValues>
            1.5915933251380920e-01 -8.0432474613189697e-01</leafValues></_>
        <_>
          <internalNodes>
            0 -1 94 2.3572718782816082e-04</internalNodes>
          <leafValues>
            1.8339908123016357e-01 -6.3850164413452148e-01</leafValues></_>
        <_>
          <internalNodes>
            0 -1 93 -1.3337752898223698e-04</internalNodes>
          <leafValues>
            -6.6880035400390625e-01 2.0039393007755280e-01</leafValues></_>
        <_>
          <internalNodes>
            0 -1 42 -6.3994876109063625e-04</internalNodes>
          <leafValues>
            -6.1399996280670166e-01 2.0398621261119843e-01</leafValues></_>
        <_>
          <internalNodes>
            0 -1 34 6.1478406190872192e-02</internalNodes>
          <leafValues>
            1.4244058728218079e-01 -8.1132763624191284e-01</leafValues></_>
        <_>
          <internalNodes>
            0 -1 20 -2.9198685660958290e-04</internalNodes>
          <leafValues>
            5.2080762386322021e-01 -2.7706205844879150e-01</leafValues></_>
        <_>
          <internalNodes>
            0 -1 2 -1.7554571386426687e-03</internalNodes>
          <leafValues>
            4.4433727860450745e-01 -3.3631554245948792e-01</leafValues></_>
        <_>
          <internalNodes>
            0 -1 78 -1.4184982865117490e-04</internalNodes>
          <leafValues>
            -7.1216756105422974e-01 2.1734526753425598e-01</leafValues></_></weakClassifiers></_>
    <!-- stage 5 -->
    <_>
      <maxWeakCount>11</maxWeakCount>
      <stageThreshold>-4.5974466204643250e-01</stageThreshold>
      <weakClassifiers>
        <_>
          <internalNodes>
            0 -1 8 4.6853665262460709e-02</internalNodes>
          <leafValues>
            4.8497852683067322e-01 -7.6470589637756348e-01</leafValues></_>
        <_>
          <internalNodes>
            0 -1 44 2.8704511350952089e-05</internalNodes>
          <leafValues>
            -4.6876314282417297e-01 3.1333631277084351e-01</leafValues></_>
        <_>
          <internalNodes>
            0 -1 62 -1.1700004688464105e-04</internalNodes>
          <leafValues>
            -6.3024878501892090e-01 1.5354688465595245e-01</leafValues></_>
        <_>
          <internalNodes>
            0 -1 16 1.2322203256189823e-03</internalNodes>
          <leafValues>
            -2.1037046611309052e-01 6.0366475582122803e-01</leafValues></_>
        <_>
          <internalNodes>
            0 -1 38 3.6320538492873311e-04</internalNodes>
          <leafValues>
            -3.9470157027244568e-01 3.3197033405303955e-01</leafValues></_>
        <_>
          <internalNodes>
            0 -1 47 4.8180774319916964e-04</internalNodes>
          <leafValues>
            1.5144868195056915e-01 -8.8006132841110229e-01</leafValues></_>
        <_>
          <internalNodes>
            0 -1 101 2.5789225473999977e-03</internalNodes>
          <leafValues>
            -2.4834190309047699e-01 5.3967308998107910e-01</leafValues></_>
        <_>
          <internalNodes>
            0 -1 26 -1.6592936590313911e-03</internalNodes>
          <leafValues>
            5.8592367172241211e-01 -2.1429690718650818e-01</leafValues></_>
        <_>
          <internalNodes>
            0 -1 96 -3.6416882649064064e-03</internalNodes>
          <leafValues>
            -7.8991901874542236e-01 1.4942139387130737e-01</leafValues></_>
        <_>
          <internalNodes>
            0 -1 90 5.1789700984954834e-02</internalNodes>
          <leafValues>
            1.2365984171628952e-01 -7.7416521310806274e-01</leafValues></_>
        <_>
          <internalNodes>
            0 -1 17 1.2278502981644124e-04</internalNodes>
          <leafValues>
            -3.3869177103042603e-01 3.5956835746765137e-01</leafValues></_></weakClassifiers></_>
    <!-- stage 6 -->
    <_>
      <maxWeakCount>13</maxWeakCount>
      <stageThreshold>-6.4528971910476685e-01</stageThreshold>
      <weakClassifiers>
        <_>
          <internalNodes>
            0 -1 12 1.0469484142959118e-02</internalNodes>
          <leafValues>
            5.0554323196411133e-01 -5.7142859697341919e-01</leafValues></_>
        <_>
          <internalNodes>
            0 -1 68 -9.4213953707367182e-04</internalNodes>
          <leafValues>
            4.8258954286575317e-01 -1.9125425815582275e-01</leafValues></_>
        <_>
          <internalNodes>
            0 -1 76 4.6114699216559529e-05</internalNodes>
          <leafValues>
            -3.1551510095596313e-01 3.7709608674049377e-01</leafValues></_>
        <_>
          <internalNodes>
            0 -1 52 4.4819497270509601e-04</internalNodes>
          <leafValues>
            1.3868187367916107e-01 -7.9045176506042480e-01</leafValues></_>
        <_>
          <internalNodes>
            0 -1 3 -9.2093385756015778e-03</internalNodes>
          <leafValues>
            5.3666806221008301e-01 -2.2397875785827637e-01</leafValues></_>
        <_>
          <internalNodes>
            0 -1 46 6.2171064200811088e-05</internalNodes>
          <leafValues>
            -5.2228248119354248e-01 1.9172641634941101e-01</leafValues></_>
        <_>
          <internalNodes>
            0 -1 22 6.1141949845477939e-04</internalNodes>
          <leafValues>
            -2.3274298012256622e-01 5.2733010053634644e-01</leafValues></_>
        <_>
          <internalNodes>
            0 -1 11 4.2287539690732956e-02</internalNodes>
          <leafValues>
            1.7915998399257660e-01 -6.4965569972991943e-01</leafValues></_>
        <_>
          <internalNodes>
            0 -1 100 5.9569487348198891e-03</internalNodes>
          <leafValues>
            -2.0469476282596588e-01 5.3551733493804932e-01</leafValues></_>
        <_>
          <internalNodes>
            0 -1 7 -2.5956113822758198e-03</internalNodes>
          <leafValues>
            -6.3110333681106567e-01 1.6891643404960632e-01</leafValues></_>
        <_>
          <internalNodes>
            0 -1 92 2.9396505851764232e-05</internalNodes>
          <leafValues>
            -3.6329951882362366e-01 2.8627058863639832e-01</leafValues></_>
        <_>
          <internalNodes>
            0 -1 15 2.0243630569893867e-04</internalNodes>
          <leafValues>
            -3.0508241057395935e-01 3.5668471455574036e-01</leafValues></_>
        <_>
          <internalNodes>
            0 -1 40 -3.2669156789779663e-02</internalNodes>
          <leafValues>
            -7.2360491752624512e-01 1.4345461130142212e-01</leafValues></_></weakClassifiers></_>
    <!-- stage 7 -->
    <_>
      <maxWeakCount>12</maxWeakCount>
      <stageThreshold>-5.0916451215744019e-01</stageThreshold>
      <weakClassifiers>
        <_>
          <internalNodes>
            0 -1 59 -4.6715865028090775e-04</internalNodes>
          <leafValues>
            -6.0975611209869385e-01 4.9019607901573181e-01</leafValues></_>
        <_>
          <internalNodes>
            0 -1 27 5.0518638454377651e-04</internalNodes>
          <leafValues>
            -1.7510999739170074e-01 5.0020313262939453e-01</leafValues></_>
        <_>
          <internalNodes>
            0 -1 87 -5.1674398127943277e-04</internalNodes>
          <leafValues>
            4.8339989781379700e-01 -2.3219779133796692e-01</leafValues></_>
        <_>
          <internalNodes>
            0 -1 81 -1.3117286143824458e-03</internalNodes>
          <leafValues>
            4.5568349957466125e-01 -3.2032796740531921e-01</leafValues></_>
        <_>
          <internalNodes>
            0 -1 69 2.7823832351714373e-04</internalNodes>
          <leafValues>
            2.5167465209960938e-01 -5.8082383871078491e-01</leafValues></_>
        <_>
          <internalNodes>
            0 -1 103 3.6741874646395445e-04</internalNodes>
          <leafValues>
            -2.8636503219604492e-01 3.9166611433029175e-01</leafValues></_>
        <_>
          <internalNodes>
            0 -1 77 2.8568312700372189e-05</internalNodes>
          <leafValues>
            -3.0786606669425964e-01 3.4382855892181396e-01</leafValues></_>
        <_>
          <internalNodes>
            0 -1 19 3.2797074527479708e-04</internalNodes>
          <leafValues>
            -2.1083641052246094e-01 5.1411861181259155e-01</leafValues></_>
        <_>
          <internalNodes>
            0 -1 95 -2.1350651513785124e-04</internalNodes>
          <leafValues>
            -7.3800188302993774e-01 1.4754122495651245e-01</leafValues></_>
        <_>
          <internalNodes>
            0 -1 35 -9.5763185527175665e-04</internalNodes>
          <leafValues>
            -7.7721613645553589e-01 1.3123352825641632e-01</leafValues></_>
        <_>
          <internalNodes>
            0 -1 84 -2.7124912012368441e-03</internalNodes>
          <leafValues>
            4.6147632598876953e-01 -2.2700531780719757e-01</leafValues></_>
        <_>
          <internalNodes>
            0 -1 82 -1.3496046885848045e-03</internalNodes>
          <leafValues>
            5.3823584318161011e-01 -1.9137756526470184e-01</leafValues></_></weakClassifiers></_>
    <!-- stage 8 -->
    <_>
      <maxWeakCount>14</maxWeakCount>
      <stageThreshold>-6.0839211940765381e-01</stageThreshold>
      <weakClassifiers>
        <_>
          <internalNodes>
            0 -1 73 1.0262317664455622e-04</internalNodes>
          <leafValues>
            5.0221240520477295e-01 -5.6250000000000000e-01</leafValues></_>
        <_>
          <internalNodes>
            0 -1 63 -1.9388073997106403e-04</internalNodes>
          <leafValues>
            -4.5706230401992798e-01 3.4938275814056396e-01</leafValues></_>
        <_>
          <internalNodes>
            0 -1 67 2.7119021979160607e-04</internalNodes>
          <leafValues>
            -2.6517602801322937e-01 5.1277905702590942e-01</leafValues></_>
        <_>
          <internalNodes>
            0 -1 53 -3.5182788269594312e-04</internalNodes>
          <leafValues>
            4.2708900570869446e-01 -2.7817448973655701e-01</leafValues></_>
        <_>
          <internalNodes>
            0 -1 51 -9.7521158750168979e-05</internalNodes>
          <leafValues>
            -7.4017673730850220e-01 1.3607332110404968e-01</leafValues></_>
        <_>
          <internalNodes>
            0 -1 32 6.7061437293887138e-03</internalNodes>
          <leafValues>
            -2.3269055783748627e-01 4.6955776214599609e-01</leafValues></_>
        <_>
          <internalNodes>
            0 -1 31 2.7457643300294876e-03</internalNodes>
          <leafValues>
            1.0352575778961182e-01 -8.6835432052612305e-01</leafValues></_>
        <_>
          <internalNodes>
            0 -1 102 -3.3334181644022465e-03</internalNodes>
          <leafValues>
            6.0170644521713257e-01 -2.0625108480453491e-01</leafValues></_>
        <_>
          <internalNodes>
            0 -1 99 4.5784443500451744e-05</internalNodes>
          <leafValues>
            -3.0793204903602600e-01 3.3619299530982971e-01</leafValues></_>
        <_>
          <internalNodes>
            0 -1 74 2.0623748423531651e-04</internalNodes>
          <leafValues>
            1.1712240427732468e-01 -7.4534392356872559e-01</leafValues></_>
        <_>
          <internalNodes>
            0 -1 18 -4.5547151239588857e-04</internalNodes>
          <leafValues>
            4.1756388545036316e-01 -2.7627938985824585e-01</leafValues></_>
        <_>
          <internalNodes>
            0 -1 72 5.5334717035293579e-04</internalNodes>
          <leafValues>
            1.7525696754455566e-01 -6.3204908370971680e-01</leafValues></_>
        <_>
          <internalNodes>
            0 -1 37 -2.0500821119640023e-04</internalNodes>
          <leafValues>
            5.2682834863662720e-01 -2.2659985721111298e-01</leafValues></_>
        <_>
          <internalNodes>
            0 -1 10 -1.2117430567741394e-01</internalNodes>
          <leafValues>
            -8.6930245161056519e-01 1.3208083808422089e-01</leafValues></_></weakClassifiers></_>
    <!-- stage 9 -->
    <_>
      <maxWeakCount>13</maxWeakCount>
      <stageThreshold>-6.5685230493545532e-01</stageThreshold>
      <weakClassifiers>
        <_>
          <internalNodes>
            0 -1 66 -1.2164107465650886e-04</internalNodes>
          <leafValues>
            -5.4216867685317993e-01 4.8527806997299194e-01</leafValues></_>
        <_>
          <internalNodes>
            0 -1 43 -1.0459634358994663e-04</internalNodes>
          <leafValues>
            -4.3012610077857971e-01 2.8393682837486267e-01</leafValues></_>
        <_>
          <internalNodes>
            0 -1 79 -2.0613658707588911e-03</internalNodes>
          <leafValues>
            4.3898499011993408e-01 -2.5174385309219360e-01</leafValues></_>
        <_>
          <internalNodes>
            0 -1 105 1.8160736653953791e-03</internalNodes>
          <leafValues>
            -1.8525466322898865e-01 5.8175909519195557e-01</leafValues></_>
        <_>
          <internalNodes>
            0 -1 23 -9.2397443950176239e-04</internalNodes>
          <leafValues>
            5.2916157245635986e-01 -1.9431525468826294e-01</leafValues></_>
        <_>
          <internalNodes>
            0 -1 6 -3.2541632652282715e-02</internalNodes>
          <leafValues>
            -8.2409971952438354e-01 1.2165196239948273e-01</leafValues></_>
        <_>
          <internalNodes>
            0 -1 83 -2.2468778770416975e-03</internalNodes>
          <leafValues>
            4.2683705687522888e-01 -2.8178212046623230e-01</leafValues></_>
        <_>
          <internalNodes>
            0 -1 9 1.3572031166404486e-03</internalNodes>
          <leafValues>
            1.6649311780929565e-01 -6.2332147359848022e-01</leafValues></_>
        <_>
          <internalNodes>
            0 -1 24 -2.8107030084356666e-04</internalNodes>
          <leafValues>
            4.3140041828155518e-01 -2.4568256735801697e-01</leafValues></_>
        <_>
          <internalNodes>
            0 -1 25 3.5994706558994949e-04</internalNodes>
          <leafValues>
            -2.3820348083972931e-01 5.0789755582809448e-01</leafValues></_>
        <_>
          <internalNodes>
            0 -1 89 -3.1826144549995661e-04</internalNodes>
          <leafValues>
            5.1522588729858398e-01 -2.0519831776618958e-01</leafValues></_>
        <_>
          <internalNodes>
            0 -1 85 1.0080058127641678e-03</internalNodes>
          <leafValues>
            -2.2421687841415405e-01 5.4292494058609009e-01</leafValues></_>
        <_>
          <internalNodes>
            0 -1 36 3.5666144685819745e-04</internalNodes>
          <leafValues>
            1.4648446440696716e-01 -7.5220459699630737e-01</leafValues></_></weakClassifiers></_></stages>
  <features>
    <_>
      <rects>
        <_>
          0 11 2 18 -1.</_>
        <_>
          1 11 1 18 2.</_></rects>
      <tilted>0</tilted></_>
    <_>
      <rects>
        <_>
          0 16 6 6 -1.</_>
        <_>
          3 16 3 6 2.</_></rects>
      <tilted>0</tilted></_>
    <_>
      <rects>
        <_>
          0 17 4 9 -1.</_>
        <_>
          2 17 2 9 2.</_></rects>
      <tilted>0</tilted></_>
    <_>
      <rects>
        <_>
          0 20 8 6 -1.</_>
        <_>
          4 20 4 6 2.</_></rects>
      <tilted>0</tilted></_>
    <_>
      <rects>
        <_>
          1 11 4 13 -1.</_>
        <_>
          3 11 2 13 2.</_></rects>
      <tilted>0</tilted></_>
    <_>
      <rects>
        <_>
          4 10 6 5 -1.</_>
        <_>
          7 10 3 5 2.</_></rects>
      <tilted>0</tilted></_>
    <_>
      <rects>
        <_>
          4 18 36 6 -1.</_>
        <_>
          16 18 12 6 3.</_></rects>
      <tilted>0</tilted></_>
    <_>
      <rects>
        <_>
          5 12 18 1 -1.</_>
        <_>
          14 12 9 1 2.</_></rects>
      <tilted>0</tilted></_>
    <_>
      <rects>
        <_>
          5 14 20 9 -1.</_>
        <_>
          15 14 10 9 2.</_></rects>
      <tilted>0</tilted></_>
    <_>
      <rects>
        <_>
          5 18 6 3 -1.</_>
        <_>
          7 18 2 3 3.</_></rects>
      <tilted>0</tilted></_>
    <_>
      <rects>
        <_>
          7 7 28 25 -1.</_>
        <_>
          21 7 14 25 2.</_></rects>
      <tilted>0</tilted></_>
    <_>
      <rects>
        <_>
          7 16 30 10 -1.</_>
        <_>
          22 16 15 10 2.</_></rects>
      <tilted>0</tilted></_>
    <_>
      <rects>
        <_>
          8 8 2 24 -1.</_>
        <_>
          8 20 2 12 2.</_></rects>
      <tilted>0</tilted></_>
    <_>
      <rects>
        <_>
          10 38 17 2 -1.</_>
        <_>
          10 39 17 1 2.</_></rects>
      <tilted>0</tilted></_>
    <_>
      <rects>
        <_>
          11 0 16 8 -1.</_>
        <_>
          11 4 16 4 2.</_></rects>
      <tilted>0</tilted></_>
    <_>
      <rects>
        <_>
          11 6 2 4 -1.</_>
        <_>
          11 8 2 2 2.</_></rects>
      <tilted>0</tilted></_>
    <_>
      <rects>
        <_>
          12 17 4 4 -1.</_>
        <_>
          14 17 2 4 2.</_></rects>
      <tilted>0</tilted></_>
    <_>
      <rects>
        <_>
          13 7 4 3 -1.</_>
        <_>
          13 8 4 1 3.</_></rects>
      <tilted>0</tilted></_>
    <_>
      <rects>
        <_>
          13 13 4 4 -1.</_>
        <_>
          13 13 2 2 2.</_>
        <_>
          15 15 2 2 2.</_></rects>
      <tilted>0</tilted></_>
    <_>
      <rects>
        <_>
          13 20 2 3 -1.</_>
        <_>
          14 20 1 3 2.</_></rects>
      <tilted>0</tilted></_>
    <_>
      <rects>
        <_>
          13 20 3 3 -1.</_>
        <_>
          14 20 1 3 3.</_></rects>
      <tilted>0</tilted></_>
    <_>
      <rects>
        <_>
          14 19 3 5 -1.</_>
        <_>
          15 19 1 5 3.</_></rects>
      <tilted>0</tilted></_>
    <_>
      <rects>
        <_>
          14 19 4 2 -1.</_>
        <_>
          16 19 2 2 2.</_></rects>
      <tilted>0</tilted></_>
    <_>
      <rects>
        <_>
          14 19 4 4 -1.</_>
        <_>
          16 19 2 4 2.</_></rects>
      <tilted>0</tilted></_>
    <_>
      <rects>
        <_>
          14 20 3 3 -1.</_>
        <_>
          15 20 1 3 3.</_></rects>
      <tilted>0</tilted></_>
    <_>
      <rects>
        <_>
          14 21 2 2 -1.</_>
        <_>
          15 21 1 2 2.</_></rects>
      <tilted>0</tilted></_>
    <_>
      <rects>
        <_>
          14 24 6 4 -1.</_>
        <_>
          14 24 3 2 2.</_>
        <_>
          17 26 3 2 2.</_></rects>
      <tilted>0</tilted></_>
    <_>
      <rects>
        <_>
          14 38 8 2 -1.</_>
        <_>
          14 39 8 1 2.</_></rects>
      <tilted>0</tilted></_>
    <_>
      <rects>
        <_>
          15 0 12 6 -1.</_>
        <_>
          15 3 12 3 2.</_></rects>
      <tilted>0</tilted></_>
    <_>
      <rects>
        <_>
          15 5 9 33 -1.</_>
        <_>
          15 16 9 11 3.</_></rects>
      <tilted>0</tilted></_>
    <_>
      <rects>
        <_>
          15 5 11 20 -1.</_>
        <_>
          15 15 11 10 2.</_></rects>
      <tilted>0</tilted></_>
    <_>
      <rects>
        <_>
          15 8 12 3 -1.</_>
        <_>
          15 9 12 1 3.</_></rects>
      <tilted>0</tilted></_>
    <_>
      <rects>
        <_>
          15 34 10 6 -1.</_>
        <_>
          15 37 10 3 2.</_></rects>
      <tilted>0</tilted></_>
    <_>
      <rects>
        <_>
          16 5 9 22 -1.</_>
        <_>
          16 16 9 11 2.</_></rects>
      <tilted>0</tilted></_>
    <_>
      <rects>
        <_>
          16 6 10 30 -1.</_>
        <_>
          16 21 10 15 2.</_></rects>
      <tilted>0</tilted></_>
    <_>
      <rects>
        <_>
          16 8 5 3 -1.</_>
        <_>
          16 9 5 1 3.</_></rects>
      <tilted>0</tilted></_>
    <_>
      <rects>
        <_>
          16 9 2 2 -1.</_>
        <_>
          16 10 2 1 2.</_></rects>
      <tilted>0</tilted></_>
    <_>
      <rects>
        <_>
          16 14 2 2 -1.</_>
        <_>
          17 14 1 2 2.</_></rects>
      <tilted>0</tilted></_>
    <_>
      <rects>
        <_>
          16 18 6 3 -1.</_>
        <_>
          19 18 3 3 2.</_></rects>
      <tilted>0</tilted></_>
    <_>
      <rects>
        <_>
          16 36 2 2 -1.</_>
        <_>
          16 37 2 1 2.</_></rects>
      <tilted>0</tilted></_>
    <_>
      <rects>
        <_>
          17 16 20 9 -1.</_>
        <_>
          27 16 10 9 2.</_></rects>
      <tilted>0</tilted></_>
    <_>
      <rects>
        <_>
          17 20 4 3 -1.</_>
        <_>
          19 20 2 3 2.</_></rects>
      <tilted>0</tilted></_>
    <_>
      <rects>
        <_>
          18 9 3 4 -1.</_>
        <_>
          18 11 3 2 2.</_></rects>
      <tilted>0</tilted></_>
    <_>
      <rects>
        <_>
          18 11 3 2 -1.</_>
        <_>
          18 12 3 1 2.</_></rects>
      <tilted>0</tilted></_>
    <_>
      <rects>
        <_>
          18 18 3 4 -1.</_>
        <_>
          18 20 3 2 2.</_></rects>
      <tilted>0</tilted></_>
    <_>
      <rects>
        <_>
          18 19 4 3 -1.</_>
        <_>
          20 19 2 3 2.</_></rects>
      <tilted>0</tilted></_>
    <_>
      <rects>
        <_>
          18 19 4 4 -1.</_>
        <_>
          20 19 2 4 2.</_></rects>
      <tilted>0</tilted></_>
    <_>
      <rects>
        <_>
          18 20 4 1 -1.</_>
        <_>
          20 20 2 1 2.</_></rects>
      <tilted>0</tilted></_>
    <_>
      <rects>
        <_>
          18 20 6 2 -1.</_>
        <_>
          20 20 2 2 3.</_></rects>
      <tilted>0</tilted></_>
    <_>
      <rects>
        <_>
          18 20 4 3 -1.</_>
        <_>
          20 20 2 3 2.</_></rects>
      <tilted>0</tilted></_>
    <_>
      <rects>
        <_>
          18 20 4 2 -1.</_>
        <_>
          18 21 4 1 2.</_></rects>
      <tilted>0</tilted></_>
    <_>
      <rects>
        <_>
          18 21 4 1 -1.</_>
        <_>
          20 21 2 1 2.</_></rects>
      <tilted>0</tilted></_>
    <_>
      <rects>
        <_>
          18 22 4 1 -1.</_>
        <_>
          20 22 2 1 2.</_></rects>
      <tilted>0</tilted></_>
    <_>
      <rects>
        <_>
          18 26 3 3 -1.</_>
        <_>
          18 27 3 1 3.</_></rects>
      <tilted>0</tilted></_>
    <_>
      <rects>
        <_>
          19 1 3 4 -1.</_>
        <_>
          19 3 3 2 2.</_></rects>
      <tilted>0</tilted></_>
    <_>
      <rects>
        <_>
          19 17 4 4 -1.</_>
        <_>
          21 17 2 4 2.</_></rects>
      <tilted>0</tilted></_>
    <_>
      <rects>
        <_>
          19 18 1 4 -1.</_>
        <_>
          19 20 1 2 2.</_></rects>
      <tilted>0</tilted></_>
    <_>
      <rects>
        <_>
          19 19 1 4 -1.</_>
        <_>
          19 21 1 2 2.</_></rects>
      <tilted>0</tilted></_>
    <_>
      <rects>
        <_>
          19 19 3 3 -1.</_>
        <_>
          20 19 1 3 3.</_></rects>
      <tilted>0</tilted></_>
    <_>
      <rects>
        <_>
          19 19 2 4 -1.</_>
        <_>
          19 21 2 2 2.</_></rects>
      <tilted>0</tilted></_>
    <_>
      <rects>
        <_>
          19 20 3 4 -1.</_>
        <_>
          20 20 1 4 3.</_></rects>
      <tilted>0</tilted></_>
    <_>
      <rects>
        <_>
          19 20 2 2 -1.</_>
        <_>
          19 21 2 1 2.</_></rects>
      <tilted>0</tilted></_>
    <_>
      <rects>
        <_>
          19 20 4 3 -1.</_>
        <_>
          21 20 2 3 2.</_></rects>
      <tilted>0</tilted></_>
    <_>
      <rects>
        <_>
          19 20 3 4 -1.</_>
        <_>
          19 22 3 2 2.</_></rects>
      <tilted>0</tilted></_>
    <_>
      <rects>
        <_>
          19 20 4 4 -1.</_>
        <_>
          19 22 4 2 2.</_></rects>
      <tilted>0</tilted></_>
    <_>
      <rects>
        <_>
          19 21 1 2 -1.</_>
        <_>
          19 22 1 1 2.</_></rects>
      <tilted>0</tilted></_>
    <_>
      <rects>
        <_>
          19 21 2 2 -1.</_>
        <_>
          19 21 1 1 2.</_>
        <_>
          20 22 1 1 2.</_></rects>
      <tilted>0</tilted></_>
    <_>
      <rects>
        <_>
          19 26 2 2 -1.</_>
        <_>
          19 27 2 1 2.</_></rects>
      <tilted>0</tilted></_>
    <_>
      <rects>
        <_>
          20 17 6 8 -1.</_>
        <_>
          20 17 3 4 2.</_>
        <_>
          23 21 3 4 2.</_></rects>
      <tilted>0</tilted></_>
    <_>
      <rects>
        <_>
          20 18 3 4 -1.</_>
        <_>
          21 18 1 4 3.</_></rects>
      <tilted>0</tilted></_>
    <_>
      <rects>
        <_>
          20 20 3 2 -1.</_>
        <_>
          21 20 1 2 3.</_></rects>
      <tilted>0</tilted></_>
    <_>
      <rects>
        <_>
          20 20 3 4 -1.</_>
        <_>
          21 20 1 4 3.</_></rects>
      <tilted>0</tilted></_>
    <_>
      <rects>
        <_>
          20 20 3 4 -1.</_>
        <_>
          20 22 3 2 2.</_></rects>
      <tilted>0</tilted></_>
    <_>
      <rects>
        <_>
          20 21 1 2 -1.</_>
        <_>
          20 22 1 1 2.</_></rects>
      <tilted>0</tilted></_>
    <_>
      <rects>
        <_>
          20 21 3 2 -1.</_>
        <_>
          21 21 1 2 3.</_></rects>
      <tilted>0</tilted></_>
    <_>
      <rects>
        <_>
          21 2 3 3 -1.</_>
        <_>
          21 3 3 1 3.</_></rects>
      <tilted>0</tilted></_>
    <_>
      <rects>
        <_>
          21 16 1 2 -1.</_>
        <_>
          21 17 1 1 2.</_></rects>
      <tilted>0</tilted></_>
    <_>
      <rects>
        <_>
          21 17 1 2 -1.</_>
        <_>
          21 18 1 1 2.</_></rects>
      <tilted>0</tilted></_>
    <_>
      <rects>
        <_>
          21 19 1 3 -1.</_>
        <_>
          21 20 1 1 3.</_></rects>
      <tilted>0</tilted></_>
    <_>
      <rects>
        <_>
          22 20 6 3 -1.</_>
        <_>
          25 20 3 3 2.</_></rects>
      <tilted>0</tilted></_>
    <_>
      <rects>
        <_>
          22 20 6 8 -1.</_>
        <_>
          22 20 3 4 2.</_>
        <_>
          25 24 3 4 2.</_></rects>
      <tilted>0</tilted></_>
    <_>
      <rects>
        <_>
          23 21 6 3 -1.</_>
        <_>
          25 21 2 3 3.</_></rects>
      <tilted>0</tilted></_>
    <_>
      <rects>
        <_>
          23 23 2 6 -1.</_>
        <_>
          23 25 2 2 3.</_></rects>
      <tilted>0</tilted></_>
    <_>
      <rects>
        <_>
          24 0 3 9 -1.</_>
        <_>
          24 3 3 3 3.</_></rects>
      <tilted>0</tilted></_>
    <_>
      <rects>
        <_>
          25 12 4 9 -1.</_>
        <_>
          27 12 2 9 2.</_></rects>
      <tilted>0</tilted></_>
    <_>
      <rects>
        <_>
          25 15 4 5 -1.</_>
        <_>
          27 15 2 5 2.</_></rects>
      <tilted>0</tilted></_>
    <_>
      <rects>
        <_>
          25 23 3 5 -1.</_>
        <_>
          26 23 1 5 3.</_></rects>
      <tilted>0</tilted></_>
    <_>
      <rects>
        <_>
          26 20 2 5 -1.</_>
        <_>
          27 20 1 5 2.</_></rects>
      <tilted>0</tilted></_>
    <_>
      <rects>
        <_>
          27 14 3 10 -1.</_>
        <_>
          28 14 1 10 3.</_></rects>
      <tilted>0</tilted></_>
    <_>
      <rects>
        <_>
          27 18 3 3 -1.</_>
        <_>
          28 18 1 3 3.</_></rects>
      <tilted>0</tilted></_>
    <_>
      <rects>
        <_>
          28 11 10 27 -1.</_>
        <_>
          28 20 10 9 3.</_></rects>
      <tilted>0</tilted></_>
    <_>
      <rects>
        <_>
          28 18 3 5 -1.</_>
        <_>
          29 18 1 5 3.</_></rects>
      <tilted>0</tilted></_>
    <_>
      <rects>
        <_>
          29 18 4 2 -1.</_>
        <_>
          31 18 2 2 2.</_></rects>
      <tilted>0</tilted></_>
    <_>
      <rects>
        <_>
          31 18 3 1 -1.</_>
        <_>
          32 18 1 1 3.</_></rects>
      <tilted>0</tilted></_>
    <_>
      <rects>
        <_>
          31 18 3 2 -1.</_>
        <_>
          32 18 1 2 3.</_></rects>
      <tilted>0</tilted></_>
    <_>
      <rects>
        <_>
          31 25 3 1 -1.</_>
        <_>
          32 25 1 1 3.</_></rects>
      <tilted>0</tilted></_>
    <_>
      <rects>
        <_>
          32 11 1 18 -1.</_>
        <_>
          32 20 1 9 2.</_></rects>
      <tilted>0</tilted></_>
    <_>
      <rects>
        <_>
          32 13 1 22 -1.</_>
        <_>
          32 24 1 11 2.</_></rects>
      <tilted>0</tilted></_>
    <_>
      <rects>
        <_>
          34 23 6 10 -1.</_>
        <_>
          36 23 2 10 3.</_></rects>
      <tilted>0</tilted></_>
    <_>
      <rects>
        <_>
          35 12 2 5 -1.</_>
        <_>
          36 12 1 5 2.</_></rects>
      <tilted>0</tilted></_>
    <_>
      <rects>
        <_>
          36 1 4 22 -1.</_>
        <_>
          38 1 2 22 2.</_></rects>
      <tilted>0</tilted></_>
    <_>
      <rects>
        <_>
          36 19 4 6 -1.</_>
        <_>
          38 19 2 6 2.</_></rects>
      <tilted>0</tilted></_>
    <_>
      <rects>
        <_>
          36 25 4 11 -1.</_>
        <_>
          38 25 2 11 2.</_></rects>
      <tilted>0</tilted></_>
    <_>
      <rects>
        <_>
          37 17 2 5 -1.</_>
        <_>
          38 17 1 5 2.</_></rects>
      <tilted>0</tilted></_>
    <_>
      <rects>
        <_>
          38 11 2 12 -1.</_>
        <_>
          38 11 1 6 2.</_>
        <_>
          39 17 1 6 2.</_></rects>
      <tilted>0</tilted></_>
    <_>
      <rects>
        <_>
          38 17 2 13 -1.</_>
        <_>
          39 17 1 13 2.</_></rects>
      <tilted>0</tilted></_></features></cascade>
</opencv_storage>
